{
  "input_nodes": 5,
  "hidden_nodes": 8,
  "output_nodes": 2,
  "weights_ih": {
    "rows": 8,
    "cols": 5,
    "data": [
      [
        1.098189277181078,
        -0.6731694864954498,
        1.0304993291946365,
        -0.10559839056185572,
        0.5921144984930681
      ],
      [
        -0.7779812706810131,
        0.8055516906799968,
        0.4614155763347669,
        0.19042729931346397,
        0.2501349608118265
      ],
      [
        -0.8221796006803623,
        0.6591890644281535,
        0.5838578482159019,
        0.29241307011991824,
        -0.43455815338513676
      ],
      [
        0.006415028662751385,
        -0.5780399008178447,
        -0.4255349019669754,
        0.5176025817632282,
        1.0963730006122163
      ],
      [
        -0.21773079176080418,
        -0.4214827458462237,
        0.9354115674550717,
        -0.590581831737978,
        -0.9538965523237106
      ],
      [
        -0.22111383780730856,
        0.875316341653764,
        0.6544749810949168,
        0.3116273813422768,
        0.01631318863081327
      ],
      [
        -0.24841240512058982,
        -0.12320406761842669,
        -0.7368454365522628,
        0.05625447567431685,
        -1.2872972311907167
      ],
      [
        1.0201481872607385,
        0.4687320211443089,
        0.6455559588969776,
        0.7228239157137901,
        -0.6074794287044449
      ]
    ]
  },
  "weights_ho": {
    "rows": 2,
    "cols": 8,
    "data": [
      [
        -0.45260940352828966,
        -0.7228079960054083,
        -0.8888200567836351,
        -0.36703396188957554,
        -0.17194441403841831,
        -0.6787557379960533,
        -0.6172912922815799,
        0.5243616547103513
      ],
      [
        -0.4797946692569511,
        0.1446106643814122,
        0.6099769761450154,
        0.01799949281275183,
        0.45377378716815836,
        -0.392797676520405,
        -0.6565997487492871,
        0.013543819433953514
      ]
    ]
  },
  "bias_h": {
    "rows": 8,
    "cols": 1,
    "data": [
      [
        0.2863655927878507
      ],
      [
        -0.33663261363548336
      ],
      [
        0.6521864817581869
      ],
      [
        -0.3604342110362213
      ],
      [
        1.0574708760576212
      ],
      [
        -0.7350520792199606
      ],
      [
        -0.08337018320814761
      ],
      [
        -0.30238874930405296
      ]
    ]
  },
  "bias_o": {
    "rows": 2,
    "cols": 1,
    "data": [
      [
        1.0945151224870675
      ],
      [
        -0.6822782086532272
      ]
    ]
  },
  "learning_rate": 0.1,
  "activation_function": {}
}
